//Numpy array shape [16, 16]
//Min -0.984375000000
//Max 1.093750000000
//Number of zeros 4

#ifndef W11_H_
#define W11_H_

namespace MultiJetTagger_v1 {
#ifdef __HLS4ML_LOAD_TXT_WEIGHTS__
weight11_t w11[256];
#else
weight11_t w11[256] = {0.312500, 0.312500, -0.296875, 0.062500, 0.078125, -0.375000, -0.296875, 0.578125, 0.031250, -0.296875, -0.062500, 0.265625, -0.390625, 0.234375, 0.453125, 0.375000, 0.671875, -0.281250, -0.953125, -0.453125, 0.421875, -0.125000, 0.687500, -0.171875, -0.234375, 0.359375, -0.031250, 0.453125, -0.578125, 1.031250, -0.453125, 0.281250, 0.859375, -0.812500, -0.796875, -0.781250, 0.906250, -0.218750, 0.171875, -0.125000, 0.125000, 0.765625, 0.390625, 0.125000, -0.375000, 0.796875, -0.390625, 0.078125, 0.109375, 0.015625, 0.234375, 0.390625, -0.046875, 0.656250, 0.031250, -0.234375, -0.140625, -0.421875, 0.000000, -0.046875, 0.390625, -0.281250, 0.296875, 0.187500, -0.234375, 0.593750, 0.625000, 0.406250, -0.671875, 0.093750, -0.937500, -0.140625, 0.171875, -0.343750, -0.062500, -0.281250, 0.281250, -0.046875, 0.031250, 0.328125, -0.234375, -0.265625, -0.484375, -0.109375, 0.140625, -0.218750, 1.046875, 0.000000, -0.187500, 0.609375, -0.359375, 0.515625, -0.234375, 0.968750, 0.187500, -0.234375, 0.343750, -0.234375, 0.234375, 0.031250, 0.484375, 0.078125, 0.578125, 0.062500, 0.031250, 0.312500, 0.125000, 0.328125, 0.109375, -0.187500, 0.250000, 0.281250, 0.500000, -0.468750, -0.265625, 0.156250, 0.234375, -0.375000, 0.562500, -0.187500, 0.093750, 0.296875, 0.453125, 0.000000, 0.171875, 0.031250, -0.328125, 0.281250, -0.031250, 0.468750, 0.296875, 0.671875, -0.375000, 0.531250, -0.296875, -0.093750, 0.078125, -0.203125, -0.218750, 0.015625, 0.421875, 0.250000, -0.203125, 0.578125, -0.171875, 0.750000, 0.000000, 0.250000, 0.218750, 0.375000, 0.453125, -0.734375, 0.343750, 0.031250, -0.250000, 0.156250, 0.031250, 0.390625, 0.015625, 0.187500, -0.250000, 0.281250, 0.281250, 0.031250, -0.234375, 0.234375, -0.234375, -0.312500, 0.234375, 0.171875, -0.031250, -0.218750, 0.375000, 0.109375, -0.031250, 0.109375, 0.125000, 0.187500, 0.359375, 0.281250, -0.437500, 0.437500, -0.281250, 0.046875, -0.156250, 0.187500, -0.062500, -0.015625, -0.046875, -0.109375, 0.062500, 0.328125, -0.187500, 0.140625, 0.218750, -0.359375, 0.031250, 0.125000, 0.093750, 0.546875, -0.250000, 0.125000, 0.156250, 0.140625, 0.062500, 0.046875, 0.062500, 0.109375, -0.375000, 0.406250, 0.500000, 0.640625, -0.156250, 0.218750, -0.062500, -0.281250, 0.687500, -0.437500, -0.562500, -0.578125, 0.671875, 0.468750, 0.062500, 0.171875, -0.218750, -0.125000, -0.781250, -0.031250, 0.125000, 0.265625, 1.062500, -0.984375, 0.906250, 1.046875, -0.359375, -0.218750, -0.234375, 1.093750, -0.203125, -0.093750, 0.218750, 0.109375, -0.125000, -0.421875, 0.500000, -0.031250, -0.296875, 0.578125, 0.062500, -0.453125, 0.484375, 0.281250, -0.390625, -0.109375, 0.468750, -0.281250};
#endif

#endif
}
