//Numpy array shape [16, 16]
//Min -0.531250000000
//Max 0.609375000000
//Number of zeros 60

#ifndef W16_H_
#define W16_H_

namespace MultiJetTagger_v1 {
#ifdef __HLS4ML_LOAD_TXT_WEIGHTS__
weight16_t w16[256];
#else
weight16_t w16[256] = {0.000000, -0.062500, -0.093750, 0.328125, -0.265625, 0.343750, 0.468750, 0.000000, 0.000000, -0.359375, -0.484375, 0.265625, -0.218750, -0.062500, 0.109375, -0.078125, 0.000000, -0.093750, -0.062500, -0.296875, -0.125000, -0.140625, 0.468750, 0.000000, 0.000000, 0.406250, 0.062500, 0.359375, -0.234375, -0.156250, -0.140625, -0.015625, 0.000000, 0.140625, 0.015625, 0.187500, 0.468750, 0.109375, -0.078125, 0.000000, 0.000000, -0.125000, -0.078125, -0.093750, -0.046875, 0.015625, 0.093750, 0.062500, 0.000000, 0.046875, -0.015625, 0.015625, 0.484375, 0.015625, 0.218750, 0.000000, 0.000000, -0.078125, -0.015625, -0.171875, 0.046875, -0.234375, 0.390625, 0.093750, 0.000000, 0.500000, 0.000000, -0.328125, -0.359375, 0.140625, -0.062500, 0.000000, 0.000000, -0.109375, -0.046875, -0.125000, -0.140625, 0.078125, -0.203125, -0.265625, 0.000000, 0.046875, 0.000000, 0.609375, 0.187500, -0.109375, -0.328125, 0.000000, 0.000000, 0.375000, -0.031250, 0.062500, -0.109375, 0.156250, 0.046875, 0.171875, 0.000000, 0.140625, 0.000000, 0.281250, -0.203125, -0.187500, 0.031250, 0.000000, 0.000000, 0.250000, 0.000000, 0.015625, 0.093750, 0.109375, -0.031250, 0.328125, 0.000000, -0.125000, -0.078125, 0.078125, -0.312500, -0.046875, 0.531250, 0.000000, 0.000000, -0.062500, 0.218750, 0.312500, 0.203125, 0.156250, 0.250000, 0.312500, 0.000000, -0.515625, 0.000000, -0.140625, 0.031250, -0.187500, -0.171875, 0.000000, 0.000000, -0.250000, -0.125000, 0.218750, -0.203125, 0.218750, 0.078125, -0.078125, 0.000000, -0.265625, 0.000000, 0.218750, 0.140625, -0.234375, -0.250000, 0.000000, 0.000000, 0.406250, 0.000000, 0.187500, 0.093750, -0.093750, -0.250000, 0.250000, 0.000000, 0.234375, 0.000000, 0.375000, -0.468750, 0.062500, 0.500000, 0.000000, 0.000000, 0.015625, 0.000000, -0.062500, -0.125000, -0.171875, -0.343750, -0.046875, 0.000000, 0.312500, 0.078125, -0.125000, -0.062500, 0.296875, 0.546875, 0.000000, 0.000000, 0.296875, 0.500000, -0.031250, 0.328125, 0.203125, -0.250000, 0.000000, 0.000000, -0.312500, 0.031250, 0.421875, 0.312500, -0.187500, 0.125000, 0.000000, 0.000000, -0.062500, -0.156250, -0.062500, -0.015625, 0.000000, -0.234375, 0.468750, 0.015625, 0.093750, 0.000000, -0.140625, 0.031250, 0.062500, 0.109375, 0.000000, 0.000000, 0.046875, 0.000000, -0.046875, 0.000000, 0.046875, -0.156250, -0.125000, 0.000000, -0.125000, 0.296875, 0.359375, 0.281250, -0.203125, -0.359375, 0.000000, 0.000000, -0.125000, 0.265625, -0.359375, 0.140625, -0.171875, -0.531250, 0.093750, -0.015625, 0.125000, -0.140625, 0.015625, -0.015625, 0.109375, 0.468750, 0.000000, 0.000000, 0.296875, -0.218750, 0.218750, -0.140625, -0.062500, 0.343750, 0.281250};
#endif

#endif
}
