//Numpy array shape [16, 8]
//Min -1.595703125000
//Max 1.511718750000
//Number of zeros 0

#ifndef W20_H_
#define W20_H_

namespace MultiJetTagger_v1 {
#ifdef __HLS4ML_LOAD_TXT_WEIGHTS__
weight20_t w20[128];
#else
weight20_t w20[128] = {-0.548828125, -0.031250000, -1.046875000, -0.775390625, 0.507812500, 0.162109375, 0.542968750, -1.210937500, -0.416015625, 0.140625000, -0.265625000, 0.376953125, -0.843750000, -0.421875000, 0.955078125, 0.853515625, 0.089843750, 0.203125000, 0.400390625, 0.289062500, -0.167968750, 0.205078125, -1.134765625, -0.386718750, 0.361328125, 0.400390625, 0.148437500, 0.361328125, 0.302734375, 0.611328125, -0.646484375, -1.083984375, 0.441406250, -0.099609375, 0.726562500, 0.132812500, -0.369140625, -0.091796875, -1.431640625, -0.074218750, -0.291015625, -0.832031250, 0.302734375, 0.349609375, -0.710937500, 0.250000000, 0.695312500, -0.367187500, 0.482421875, -0.572265625, 0.099609375, 0.517578125, 0.539062500, -0.066406250, -1.595703125, 0.710937500, 0.193359375, -0.041015625, 0.156250000, -0.478515625, 0.171875000, -0.580078125, 1.460937500, -0.515625000, -0.541015625, 0.306640625, -0.837890625, -1.218750000, -0.660156250, 0.093750000, 1.511718750, 0.687500000, 0.041015625, -0.066406250, 0.039062500, 0.683593750, -0.353515625, 0.466796875, -0.181640625, -0.095703125, -0.406250000, -0.390625000, 0.470703125, 0.585937500, 0.244140625, 0.341796875, -0.167968750, 0.781250000, 0.466796875, -0.156250000, -0.826171875, -1.009765625, 0.531250000, 0.455078125, 0.033203125, 0.115234375, -0.839843750, -0.041015625, -0.316406250, 0.230468750, -0.511718750, -0.757812500, 0.927734375, 1.320312500, -0.662109375, -0.625000000, 0.324218750, -0.033203125, -0.486328125, -0.935546875, 0.041015625, 0.880859375, 0.232421875, 1.185546875, -0.855468750, -0.568359375, 0.166015625, 0.259765625, 0.306640625, -0.146484375, -0.201171875, 0.898437500, -0.550781250, -0.998046875, 0.880859375, 0.294921875, 0.056640625, -0.417968750};
#endif

#endif
}
