//Numpy array shape [16, 16]
//Min -0.761281251907
//Max 0.750941038132
//Number of zeros 0

#ifndef W27_H_
#define W27_H_

namespace MultiJetTagger_v1 {
#ifdef __HLS4ML_LOAD_TXT_WEIGHTS__
qdense_phi_2_weight_t w27[256];
#else
qdense_phi_2_weight_t w27[256] = {0.375000, 0.062500, -0.156250, 0.328125, -0.015625, -0.500000, 0.062500, 0.015625, 0.015625, -0.234375, 0.375000, 0.437500, 0.359375, -0.109375, 0.000000, -0.078125, -0.140625, -0.156250, 0.078125, -0.125000, -0.078125, 0.359375, 0.437500, 0.171875, -0.359375, 0.093750, -0.015625, -0.156250, 0.218750, 0.000000, 0.187500, 0.234375, 0.453125, -0.171875, 0.203125, 0.312500, -0.078125, 0.281250, 0.015625, -0.062500, -0.109375, -0.187500, 0.140625, 0.500000, 0.328125, -0.312500, 0.281250, 0.171875, 0.312500, -0.125000, -0.031250, 0.046875, 0.375000, -0.390625, -0.078125, -0.515625, 0.015625, 0.109375, 0.421875, 0.281250, 0.312500, -0.046875, -0.187500, 0.281250, 0.234375, -0.093750, -0.031250, -0.156250, 0.093750, -0.281250, 0.203125, 0.093750, -0.234375, -0.109375, 0.109375, 0.000000, -0.187500, 0.218750, -0.156250, 0.546875, -0.250000, -0.375000, -0.078125, -0.265625, 0.125000, 0.390625, 0.437500, 0.125000, 0.328125, 0.421875, 0.328125, 0.078125, -0.250000, 0.265625, 0.265625, -0.765625, -0.359375, 0.421875, 0.078125, 0.250000, -0.078125, 0.343750, 0.296875, 0.281250, 0.218750, -0.046875, 0.062500, -0.421875, -0.031250, 0.250000, 0.015625, 0.218750, -0.390625, 0.203125, -0.265625, -0.187500, 0.296875, 0.218750, 0.062500, 0.328125, 0.062500, 0.750000, 0.000000, -0.093750, -0.078125, 0.218750, 0.015625, -0.531250, 0.015625, -0.171875, -0.406250, 0.203125, 0.093750, -0.375000, -0.421875, 0.093750, 0.218750, 0.140625, -0.078125, 0.421875, -0.312500, 0.421875, -0.296875, -0.406250, -0.171875, 0.312500, 0.187500, -0.125000, -0.437500, 0.171875, 0.171875, 0.406250, -0.484375, 0.031250, -0.406250, -0.281250, -0.375000, -0.234375, 0.390625, 0.312500, 0.609375, 0.062500, -0.203125, 0.296875, -0.468750, 0.187500, 0.484375, 0.296875, -0.500000, -0.109375, -0.421875, 0.140625, -0.046875, -0.140625, -0.140625, 0.000000, 0.406250, 0.546875, 0.421875, -0.328125, -0.046875, 0.140625, 0.421875, 0.218750, -0.031250, -0.015625, -0.093750, 0.109375, 0.109375, -0.515625, 0.156250, 0.031250, 0.078125, -0.281250, 0.343750, -0.234375, 0.234375, 0.140625, -0.281250, -0.296875, -0.234375, -0.390625, 0.515625, -0.156250, 0.031250, -0.328125, -0.250000, 0.328125, -0.046875, -0.250000, -0.015625, 0.468750, 0.500000, 0.062500, -0.390625, -0.437500, 0.421875, 0.203125, 0.515625, 0.468750, -0.031250, 0.453125, -0.109375, 0.031250, -0.031250, 0.265625, 0.328125, -0.156250, -0.093750, -0.250000, -0.078125, 0.046875, 0.125000, 0.015625, 0.031250, 0.000000, 0.203125, -0.078125, 0.296875, 0.281250, 0.421875, -0.015625, 0.171875, 0.078125, -0.203125, -0.203125, -0.156250, -0.437500, -0.046875, 0.234375, 0.562500, 0.187500, 0.218750, -0.171875, -0.171875, 0.312500};
#endif

#endif
}
