//Numpy array shape [16, 8]
//Min -4.000000000000
//Max 3.984375000000
//Number of zeros 13

#ifndef W19_H_
#define W19_H_

namespace L1TSC4NGJetModel_v1 {
#ifdef __HLS4ML_LOAD_TXT_WEIGHTS__
weight19_t w19[128];
#else
weight19_t w19[128] = {0.000000, -0.312500, -0.750000, -1.593750, 1.828125, 2.734375, 0.000000, 2.671875, 0.343750, -0.156250, -0.750000, 0.000000, -0.671875, -0.859375, -3.390625, 2.109375, -0.625000, -1.015625, -1.171875, -1.046875, -0.609375, 0.656250, 1.109375, 1.906250, 0.812500, 0.796875, -0.843750, -0.734375, 0.000000, -1.671875, 3.984375, -1.375000, -2.468750, -1.671875, -1.625000, -1.656250, 1.937500, 1.265625, 1.390625, 3.187500, -0.484375, -1.093750, -0.125000, -2.031250, 1.765625, 0.375000, 0.718750, 1.390625, 1.000000, 1.671875, 1.390625, 0.625000, -0.093750, 0.937500, -3.859375, -4.000000, -0.156250, 0.656250, 0.515625, 0.062500, 2.484375, -0.078125, -0.484375, -3.359375, 0.000000, -0.546875, 0.000000, 0.109375, -1.687500, -2.406250, 3.406250, 2.562500, -0.140625, 0.187500, 0.078125, -0.203125, 0.375000, 0.000000, 0.203125, -0.453125, -1.703125, 0.421875, 0.000000, 2.000000, 0.000000, -0.609375, 0.000000, -1.843750, -0.359375, 0.390625, -0.250000, -0.187500, -0.062500, 0.328125, -0.250000, 0.281250, 1.109375, -0.828125, -1.593750, 0.234375, -0.828125, -2.968750, 3.984375, -2.765625, 0.390625, 0.562500, 0.609375, 0.250000, -0.609375, 1.015625, -3.312500, -1.000000, 0.109375, 0.265625, 0.328125, 0.187500, -3.015625, 2.171875, 0.000000, -0.562500, -2.078125, -2.250000, 0.000000, 0.000000, -0.859375, -1.484375, 1.578125, 2.718750};

#endif

#endif
}
