//Numpy array shape [1, 10, 10]
//Min -1.375000000000
//Max 2.593750000000
//Number of zeros 12

#ifndef W26_H_
#define W26_H_

namespace L1TSC4NGJetModel_v1 {
#ifdef __HLS4ML_LOAD_TXT_WEIGHTS__
weight26_t w26[100];
#else
weight26_t w26[100] = {0.515625, 0.437500, 0.187500, 0.578125, 0.093750, -0.546875, -0.281250, 0.062500, -0.843750, -0.531250, 0.390625, -0.375000, -1.000000, 1.718750, 0.062500, 0.000000, 0.296875, -0.687500, -0.812500, 0.000000, 0.515625, 0.000000, 0.390625, 0.796875, 0.031250, -0.437500, -0.328125, -0.781250, 0.421875, -1.031250, 0.000000, 0.828125, 0.687500, -1.062500, 0.000000, -0.250000, 0.171875, 0.875000, 0.765625, 1.109375, -0.125000, -0.593750, 2.000000, 0.234375, 0.109375, -0.046875, -1.250000, 0.078125, 0.843750, 0.000000, -0.609375, 0.093750, 0.546875, 0.390625, 0.000000, -0.078125, -0.234375, 1.375000, -1.375000, 2.593750, 0.125000, 0.875000, 0.000000, 0.000000, -0.187500, -0.390625, 1.218750, -1.000000, 0.562500, -0.390625, 0.640625, 0.000000, -0.375000, -0.328125, 0.171875, -0.468750, 0.265625, -0.468750, 0.109375, 0.687500, -0.296875, 0.156250, 0.421875, 0.546875, 0.046875, 0.078125, -0.125000, 1.203125, -1.187500, 1.500000, 0.203125, -0.359375, 0.000000, -0.312500, 1.312500, -0.312500, -0.718750, 0.000000, -0.640625, 0.406250};

#endif

#endif
}
