//Numpy array shape [32, 16]
//Min -3.031250000000
//Max 3.984375000000
//Number of zeros 51

#ifndef W14_H_
#define W14_H_

namespace JetTaggerNN_v1 {
#ifdef __HLS4ML_LOAD_TXT_WEIGHTS__
weight14_t w14[512];
#else
weight14_t w14[512] = {-0.312500, 0.031250, -0.031250, -0.078125, -0.062500, -0.187500, 0.078125, -0.093750, -0.078125, -0.218750, -0.078125, -0.031250, -0.125000, -0.015625, 0.171875, 0.171875, -1.781250, -0.921875, -1.312500, -2.343750, -0.140625, 0.312500, 1.515625, 0.343750, -0.609375, -0.140625, 0.375000, 0.078125, 0.000000, -1.156250, 0.906250, -0.546875, 0.281250, 0.015625, -0.250000, -0.125000, 0.234375, 0.125000, -0.062500, 0.093750, -0.265625, 0.187500, -0.078125, 0.078125, -0.171875, -0.250000, 0.125000, 0.187500, -0.046875, -0.078125, 0.000000, 0.281250, 0.000000, 0.000000, -0.468750, -1.562500, 0.000000, -0.265625, 0.171875, -0.140625, 0.000000, 1.093750, -0.593750, 0.796875, 0.234375, -0.156250, -0.031250, -0.062500, 0.265625, -0.109375, -0.078125, 0.078125, -0.187500, -0.312500, -0.296875, -0.187500, -0.234375, -0.281250, 0.000000, 0.093750, -0.375000, 0.562500, 1.218750, 0.000000, 0.312500, -0.343750, -1.468750, -1.312500, 0.296875, -0.031250, -0.515625, 0.109375, 0.296875, 0.828125, -1.281250, 0.421875, -0.390625, -0.109375, -0.812500, -0.531250, 0.000000, -1.359375, -0.218750, 0.656250, 0.000000, 0.015625, 0.765625, -0.218750, 0.484375, 1.718750, -0.250000, -0.656250, -0.296875, 0.875000, 0.000000, 0.234375, -0.468750, -0.359375, 0.187500, -0.343750, -0.203125, 0.000000, 0.000000, -0.218750, 0.125000, 1.671875, 0.265625, -0.640625, 0.453125, 0.656250, -0.140625, -0.328125, -0.375000, -0.281250, 1.187500, 0.843750, 0.375000, 0.078125, 0.000000, -0.203125, 0.406250, -1.140625, -1.015625, 0.515625, 1.546875, 0.125000, 0.187500, 0.000000, -2.250000, 0.265625, 0.000000, -0.593750, 0.500000, -0.062500, 0.031250, -0.265625, 0.828125, 0.171875, 0.484375, 0.000000, 0.218750, -0.281250, -0.046875, 0.046875, 0.250000, 0.156250, 0.187500, 0.078125, -0.015625, 0.171875, 0.203125, 0.203125, 0.125000, 0.000000, -0.281250, -0.093750, -1.546875, 0.000000, 0.781250, -0.375000, 1.093750, -0.125000, -0.984375, -1.281250, -0.593750, -0.375000, -0.031250, 0.062500, 0.328125, 1.515625, 0.968750, 0.625000, -1.203125, -0.093750, -1.125000, 0.484375, 1.062500, 0.000000, 0.843750, 1.187500, 0.000000, -0.265625, -0.687500, -0.015625, -0.140625, 3.140625, 0.000000, 0.375000, 0.796875, 1.187500, -1.421875, -0.375000, -0.671875, 0.000000, -1.687500, 1.421875, 2.421875, -0.109375, 0.000000, 0.218750, 0.500000, 3.984375, -3.031250, -0.609375, 0.000000, -0.187500, 0.296875, -0.171875, 0.125000, -0.078125, 0.140625, 0.031250, 0.203125, 0.250000, 0.140625, -0.203125, -0.078125, -0.187500, -0.250000, -0.125000, 0.218750, 0.765625, -0.562500, -1.062500, -0.421875, -0.218750, -1.484375, -0.937500, 0.125000, 0.203125, 0.000000, -0.234375, 0.265625, -0.984375, 1.843750, -0.218750, 0.843750, -1.140625, 0.000000, -0.265625, -1.765625, -0.062500, 0.515625, -2.234375, 1.515625, 0.000000, 0.781250, 0.140625, 0.000000, -0.515625, -0.671875, 0.609375, 0.078125, 1.171875, -0.312500, -1.281250, -0.421875, 0.390625, -0.437500, 0.156250, 0.140625, -0.343750, 1.015625, 0.203125, -1.078125, -0.546875, -0.781250, 1.062500, 0.000000, -1.000000, 1.078125, -0.984375, 0.203125, 1.500000, 0.703125, -1.375000, 0.000000, -0.218750, 0.984375, -0.125000, 0.843750, -1.390625, -0.281250, 0.453125, -0.093750, 0.187500, 0.156250, -0.046875, 0.328125, -0.140625, -0.171875, 0.109375, -0.203125, 0.140625, 0.187500, -0.171875, -0.062500, -0.109375, 0.156250, -0.078125, -0.234375, 0.000000, -0.328125, 0.218750, 0.265625, -0.140625, 0.625000, 0.000000, -0.593750, -0.078125, 0.187500, -0.140625, 0.250000, 0.875000, 0.578125, -1.046875, -0.265625, -0.031250, 0.156250, 0.031250, 0.140625, -0.265625, 0.000000, -0.250000, -0.296875, -0.281250, 0.171875, -0.140625, 0.265625, -0.187500, -0.171875, 0.031250, -0.281250, -0.234375, -0.296875, -0.796875, -1.015625, -0.281250, -0.406250, -0.953125, -1.015625, 0.015625, 1.203125, -0.156250, 0.453125, 0.437500, -0.453125, -1.062500, 0.000000, -0.109375, 0.234375, -0.093750, -0.296875, 0.187500, -0.093750, -0.015625, 0.187500, 0.156250, -0.125000, 0.062500, -0.093750, 0.203125, 0.140625, -0.203125, 0.234375, -0.265625, 2.234375, 2.484375, -0.375000, 0.515625, 0.671875, -0.750000, 0.406250, -0.343750, 0.718750, 0.109375, 0.343750, -0.250000, -0.640625, 1.203125, -0.015625, -0.562500, 0.031250, -0.062500, 0.656250, 0.250000, 0.000000, 0.687500, -0.640625, 0.015625, 0.000000, -0.187500, 0.187500, -0.281250, 0.359375, 0.000000, -0.156250, 1.390625, 1.203125, 0.875000, 1.109375, 0.218750, 0.156250, 0.000000, 0.000000, -0.265625, -0.093750, -0.140625, 0.359375, 0.000000, 0.312500, 0.765625, -1.062500, 0.812500, 0.828125, 0.500000, -0.109375, 0.140625, 1.281250, 0.421875, 0.140625, 0.015625, -0.406250, -0.062500, 0.140625, -0.781250, -0.421875, 0.000000, 0.546875, -0.312500, 0.000000, -0.328125, 0.718750, 0.390625, 0.000000, 0.000000, 0.390625, -0.187500, 0.265625, 0.125000, -1.046875, 0.625000, 1.031250, -0.875000, -0.187500, 2.812500, -0.953125, 0.125000, 0.000000, 0.000000, 0.000000, -0.906250, -0.859375, -0.281250, 0.421875, -0.234375, -0.734375, -0.187500, 0.515625, 0.812500, 0.265625, -0.796875, -0.984375, -0.468750, 0.546875, -0.343750, 0.000000, 0.546875, 0.375000, -0.296875, 0.281250, -0.140625, -0.046875, 1.890625, -0.750000, -2.515625, 0.031250, 0.000000, 0.046875, -1.234375, 0.093750, -0.281250, -0.765625, -0.015625, -0.093750, -0.281250, 0.515625, -0.062500, -0.671875, 0.000000, -0.078125, 0.953125};

#endif

#endif
}
