//Numpy array shape [10, 10]
//Min -1.671875000000
//Max 0.640625000000
//Number of zeros 60

#ifndef W17_H_
#define W17_H_

#ifndef __SYNTHESIS__
weight17_t w17[100];
#else
weight17_t w17[100] = {-0.375000, 0.000000, 0.390625, 0.000000, 0.421875, 0.000000, 0.437500, 0.000000, -0.359375, 0.000000, 0.437500, 0.000000, -0.968750, 0.000000, -0.531250, 0.000000, -1.390625, -1.671875, 0.000000, 0.000000, 0.000000, 0.000000, 0.515625, 0.000000, 0.000000, 0.562500, 0.000000, 0.000000, -0.359375, 0.359375, 0.000000, -0.546875, 0.000000, -0.531250, 0.000000, 0.000000, 0.406250, 0.000000, 0.000000, 0.000000, 0.375000, -0.437500, 0.453125, 0.000000, 0.000000, 0.000000, -0.437500, 0.000000, 0.484375, 0.000000, 0.000000, 0.000000, 0.000000, 0.000000, 0.000000, 0.000000, -0.843750, 0.000000, -0.531250, 0.000000, 0.000000, 0.359375, -0.375000, 0.359375, 0.000000, 0.000000, 0.578125, 0.578125, 0.000000, -0.484375, 0.000000, 0.000000, 0.000000, 0.000000, 0.000000, 0.000000, 0.000000, -0.609375, 0.000000, -0.390625, 0.000000, 0.000000, 0.000000, 0.000000, 0.437500, 0.000000, 0.421875, 0.406250, -0.531250, -0.484375, -0.546875, 0.000000, 0.000000, 0.000000, -0.437500, 0.000000, 0.640625, 0.000000, 0.000000, 0.000000};

#endif

#endif
