//Numpy array shape [10, 10]
//Min -4.000000000000
//Max 2.328125000000
//Number of zeros 13

#ifndef W17_H_
#define W17_H_

namespace JetTaggerNN_v1 {
#ifdef __HLS4ML_LOAD_TXT_WEIGHTS__
weight17_t w17[100];
#else
weight17_t w17[100] = {-0.296875, -0.109375, -0.156250, 0.984375, 0.000000, 0.750000, -3.859375, 0.203125, 2.203125, 1.125000, -1.515625, -0.078125, 0.109375, 0.703125, -1.500000, 1.218750, 0.453125, -1.328125, 0.593750, -1.140625, -0.468750, -0.171875, -0.390625, -0.296875, 0.484375, 0.000000, -1.250000, 0.203125, 0.000000, 0.000000, 0.625000, -0.421875, -0.187500, 1.078125, 0.031250, 0.015625, 0.531250, -0.468750, 0.875000, 0.000000, 2.328125, -0.468750, -0.281250, -1.109375, -4.000000, -4.000000, 1.328125, 0.828125, -1.937500, 0.984375, 0.359375, -0.406250, 0.390625, -0.453125, 0.156250, -0.250000, -0.281250, -0.046875, -0.375000, 0.000000, -0.250000, 0.312500, 0.000000, 1.625000, 0.265625, 1.375000, 1.265625, -1.171875, 0.000000, -0.875000, 0.000000, -0.296875, -0.218750, -0.953125, 0.140625, -0.046875, -1.890625, 0.453125, -1.281250, -0.390625, -0.578125, -0.406250, 0.000000, 0.234375, 1.296875, 0.046875, -1.921875, -0.250000, 2.296875, 0.031250, -0.062500, 0.000000, 0.171875, 0.046875, 0.140625, -0.437500, 1.328125, 0.000000, 0.000000, -0.343750};

#endif

#endif
}
