//Numpy array shape [16, 8]
//Min -2.484375000000
//Max 2.750000000000
//Number of zeros 77

#ifndef W19_H_
#define W19_H_

#ifndef __SYNTHESIS__
weight19_t w19[128];
#else
weight19_t w19[128] = {0.000000, 0.000000, 0.000000, 0.000000, 0.000000, 0.000000, 0.000000, 0.343750, 0.406250, 0.000000, 0.000000, -0.406250, 0.000000, 0.000000, 0.343750, 0.421875, -1.671875, 0.000000, 0.000000, 0.000000, 0.000000, 0.000000, 1.000000, 0.000000, 0.000000, 0.000000, 0.000000, -0.421875, 0.390625, 0.000000, 0.000000, 0.000000, 0.000000, 0.000000, -0.437500, -0.796875, -0.859375, 0.000000, -0.765625, 0.000000, 0.000000, 0.000000, -0.359375, 0.000000, 0.000000, 0.000000, 0.000000, 0.000000, 0.000000, 0.000000, 0.625000, 0.000000, 0.750000, -0.703125, 0.000000, 0.000000, -2.484375, 0.000000, -2.015625, 0.000000, 0.000000, 0.000000, 2.750000, 0.000000, 0.000000, 0.000000, 0.000000, 0.000000, -0.906250, -1.156250, 0.000000, -2.453125, 0.000000, 0.000000, 0.000000, 2.625000, 0.000000, 0.000000, 0.000000, 0.000000, 0.000000, -0.953125, 0.000000, -0.890625, -0.468750, 0.000000, -0.796875, 0.000000, -0.281250, 0.000000, -0.593750, 0.000000, 0.000000, -0.671875, -0.750000, -0.390625, 0.000000, 0.000000, -0.640625, 0.000000, -0.953125, -0.859375, -1.234375, -1.437500, 0.000000, -0.921875, 0.000000, 0.000000, -0.437500, -0.609375, -0.484375, -0.406250, 0.000000, 0.000000, -0.453125, 0.000000, 0.000000, -0.453125, -0.312500, 0.000000, 0.000000, -0.578125, 0.000000, -0.812500, -0.703125, -0.734375, -0.546875, 0.000000};

#endif

#endif
